digraph Tree {
node [shape=box, fontname="helvetica"] ;
edge [fontname="helvetica"] ;
0 [label="x[23] <= 0.205\nentropy = 0.911\nsamples = 144\nvalue = [2, 106, 36]"] ;
1 [label="x[17] <= 0.52\nentropy = 0.989\nsamples = 119\nvalue = [2, 82, 35]"] ;
0 -> 1 [labeldistance=2.5, labelangle=45, headlabel="True"] ;
2 [label="x[10] <= 0.898\nentropy = 1.139\nsamples = 56\nvalue = [2, 34, 20]"] ;
1 -> 2 ;
3 [label="x[18] <= 0.521\nentropy = 1.105\nsamples = 52\nvalue = [2, 34, 16]"] ;
2 -> 3 ;
4 [label="x[25] <= 0.075\nentropy = 0.906\nsamples = 30\nvalue = [2, 24, 4]"] ;
3 -> 4 ;
5 [label="x[60] <= 0.046\nentropy = 0.811\nsamples = 16\nvalue = [0, 12, 4]"] ;
4 -> 5 ;
6 [label="entropy = 0.0\nsamples = 3\nvalue = [0, 0, 3]"] ;
5 -> 6 ;
7 [label="x[55] <= 0.827\nentropy = 0.391\nsamples = 13\nvalue = [0, 12, 1]"] ;
5 -> 7 ;
8 [label="x[50] <= 0.646\nentropy = 0.469\nsamples = 10\nvalue = [0, 9, 1]"] ;
7 -> 8 ;
9 [label="entropy = 0.544\nsamples = 8\nvalue = [0, 7, 1]"] ;
8 -> 9 ;
10 [label="entropy = 0.0\nsamples = 2\nvalue = [0, 2, 0]"] ;
8 -> 10 ;
11 [label="entropy = 0.0\nsamples = 3\nvalue = [0, 3, 0]"] ;
7 -> 11 ;
12 [label="x[57] <= 0.89\nentropy = 0.592\nsamples = 14\nvalue = [2, 12, 0]"] ;
4 -> 12 ;
13 [label="x[27] <= 0.11\nentropy = 0.684\nsamples = 11\nvalue = [2, 9, 0]"] ;
12 -> 13 ;
14 [label="entropy = 0.0\nsamples = 5\nvalue = [0, 5, 0]"] ;
13 -> 14 ;
15 [label="entropy = 0.918\nsamples = 6\nvalue = [2, 4, 0]"] ;
13 -> 15 ;
16 [label="entropy = 0.0\nsamples = 3\nvalue = [0, 3, 0]"] ;
12 -> 16 ;
17 [label="x[30] <= 0.227\nentropy = 0.994\nsamples = 22\nvalue = [0, 10, 12]"] ;
3 -> 17 ;
18 [label="x[20] <= 0.697\nentropy = 0.949\nsamples = 19\nvalue = [0, 7, 12]"] ;
17 -> 18 ;
19 [label="entropy = 0.0\nsamples = 1\nvalue = [0, 1, 0]"] ;
18 -> 19 ;
20 [label="x[53] <= 0.46\nentropy = 0.918\nsamples = 18\nvalue = [0, 6, 12]"] ;
18 -> 20 ;
21 [label="entropy = 0.592\nsamples = 7\nvalue = [0, 1, 6]"] ;
20 -> 21 ;
22 [label="x[28] <= 0.458\nentropy = 0.994\nsamples = 11\nvalue = [0, 5, 6]"] ;
20 -> 22 ;
23 [label="entropy = 0.971\nsamples = 10\nvalue = [0, 4, 6]"] ;
22 -> 23 ;
24 [label="entropy = 0.0\nsamples = 1\nvalue = [0, 1, 0]"] ;
22 -> 24 ;
25 [label="entropy = 0.0\nsamples = 3\nvalue = [0, 3, 0]"] ;
17 -> 25 ;
26 [label="entropy = 0.0\nsamples = 4\nvalue = [0, 0, 4]"] ;
2 -> 26 ;
27 [label="x[32] <= 1.509\nentropy = 0.792\nsamples = 63\nvalue = [0, 48, 15]"] ;
1 -> 27 ;
28 [label="x[37] <= 0.203\nentropy = 0.414\nsamples = 12\nvalue = [0, 11, 1]"] ;
27 -> 28 ;
29 [label="entropy = 0.0\nsamples = 11\nvalue = [0, 11, 0]"] ;
28 -> 29 ;
30 [label="entropy = 0.0\nsamples = 1\nvalue = [0, 0, 1]"] ;
28 -> 30 ;
31 [label="x[6] <= 0.526\nentropy = 0.848\nsamples = 51\nvalue = [0, 37, 14]"] ;
27 -> 31 ;
32 [label="x[39] <= 0.465\nentropy = 0.894\nsamples = 45\nvalue = [0, 31, 14]"] ;
31 -> 32 ;
33 [label="x[19] <= 0.777\nentropy = 0.629\nsamples = 19\nvalue = [0, 16, 3]"] ;
32 -> 33 ;
34 [label="entropy = 0.0\nsamples = 9\nvalue = [0, 9, 0]"] ;
33 -> 34 ;
35 [label="x[7] <= 0.316\nentropy = 0.881\nsamples = 10\nvalue = [0, 7, 3]"] ;
33 -> 35 ;
36 [label="entropy = 0.971\nsamples = 5\nvalue = [0, 2, 3]"] ;
35 -> 36 ;
37 [label="entropy = 0.0\nsamples = 5\nvalue = [0, 5, 0]"] ;
35 -> 37 ;
38 [label="x[49] <= 0.521\nentropy = 0.983\nsamples = 26\nvalue = [0, 15, 11]"] ;
32 -> 38 ;
39 [label="x[25] <= 0.107\nentropy = 0.999\nsamples = 23\nvalue = [0, 12, 11]"] ;
38 -> 39 ;
40 [label="x[42] <= 0.017\nentropy = 0.989\nsamples = 16\nvalue = [0, 7, 9]"] ;
39 -> 40 ;
41 [label="entropy = 0.863\nsamples = 7\nvalue = [0, 5, 2]"] ;
40 -> 41 ;
42 [label="entropy = 0.764\nsamples = 9\nvalue = [0, 2, 7]"] ;
40 -> 42 ;
43 [label="entropy = 0.863\nsamples = 7\nvalue = [0, 5, 2]"] ;
39 -> 43 ;
44 [label="entropy = 0.0\nsamples = 3\nvalue = [0, 3, 0]"] ;
38 -> 44 ;
45 [label="entropy = 0.0\nsamples = 6\nvalue = [0, 6, 0]"] ;
31 -> 45 ;
46 [label="x[49] <= 0.122\nentropy = 0.242\nsamples = 25\nvalue = [0, 24, 1]"] ;
0 -> 46 [labeldistance=2.5, labelangle=-45, headlabel="False"] ;
47 [label="entropy = 0.0\nsamples = 20\nvalue = [0, 20, 0]"] ;
46 -> 47 ;
48 [label="entropy = 0.722\nsamples = 5\nvalue = [0, 4, 1]"] ;
46 -> 48 ;
}