digraph Tree {
node [shape=box, fontname="helvetica"] ;
edge [fontname="helvetica"] ;
0 [label="x[57] <= 0.749\ngini = 0.461\nsamples = 144\nvalue = [52, 92]"] ;
1 [label="x[1] <= 0.24\ngini = 0.483\nsamples = 103\nvalue = [42, 61]"] ;
0 -> 1 [labeldistance=2.5, labelangle=45, headlabel="True"] ;
2 [label="x[0] <= 0.904\ngini = 0.483\nsamples = 27\nvalue = [16, 11]"] ;
1 -> 2 ;
3 [label="gini = 0.18\nsamples = 10\nvalue = [9, 1]"] ;
2 -> 3 ;
4 [label="x[42] <= 0.89\ngini = 0.484\nsamples = 17\nvalue = [7, 10]"] ;
2 -> 4 ;
5 [label="gini = 0.469\nsamples = 8\nvalue = [3, 5]"] ;
4 -> 5 ;
6 [label="gini = 0.494\nsamples = 9\nvalue = [4, 5]"] ;
4 -> 6 ;
7 [label="x[9] <= 0.545\ngini = 0.45\nsamples = 76\nvalue = [26, 50]"] ;
1 -> 7 ;
8 [label="x[51] <= 0.77\ngini = 0.497\nsamples = 28\nvalue = [13, 15]"] ;
7 -> 8 ;
9 [label="x[56] <= 0.349\ngini = 0.465\nsamples = 19\nvalue = [7, 12]"] ;
8 -> 9 ;
10 [label="gini = 0.49\nsamples = 7\nvalue = [3, 4]"] ;
9 -> 10 ;
11 [label="gini = 0.444\nsamples = 12\nvalue = [4, 8]"] ;
9 -> 11 ;
12 [label="gini = 0.444\nsamples = 9\nvalue = [6, 3]"] ;
8 -> 12 ;
13 [label="x[18] <= 0.923\ngini = 0.395\nsamples = 48\nvalue = [13, 35]"] ;
7 -> 13 ;
14 [label="x[53] <= 0.523\ngini = 0.499\nsamples = 21\nvalue = [10, 11]"] ;
13 -> 14 ;
15 [label="gini = 0.463\nsamples = 11\nvalue = [7, 4]"] ;
14 -> 15 ;
16 [label="gini = 0.42\nsamples = 10\nvalue = [3, 7]"] ;
14 -> 16 ;
17 [label="x[59] <= 0.531\ngini = 0.198\nsamples = 27\nvalue = [3, 24]"] ;
13 -> 17 ;
18 [label="x[42] <= 0.984\ngini = 0.105\nsamples = 18\nvalue = [1, 17]"] ;
17 -> 18 ;
19 [label="gini = 0.0\nsamples = 12\nvalue = [0, 12]"] ;
18 -> 19 ;
20 [label="gini = 0.278\nsamples = 6\nvalue = [1, 5]"] ;
18 -> 20 ;
21 [label="gini = 0.346\nsamples = 9\nvalue = [2, 7]"] ;
17 -> 21 ;
22 [label="x[42] <= 0.79\ngini = 0.369\nsamples = 41\nvalue = [10, 31]"] ;
0 -> 22 [labeldistance=2.5, labelangle=-45, headlabel="False"] ;
23 [label="x[11] <= 0.85\ngini = 0.426\nsamples = 26\nvalue = [8, 18]"] ;
22 -> 23 ;
24 [label="x[54] <= 0.62\ngini = 0.475\nsamples = 18\nvalue = [7, 11]"] ;
23 -> 24 ;
25 [label="x[21] <= 0.861\ngini = 0.5\nsamples = 12\nvalue = [6, 6]"] ;
24 -> 25 ;
26 [label="gini = 0.444\nsamples = 6\nvalue = [4, 2]"] ;
25 -> 26 ;
27 [label="gini = 0.444\nsamples = 6\nvalue = [2, 4]"] ;
25 -> 27 ;
28 [label="gini = 0.278\nsamples = 6\nvalue = [1, 5]"] ;
24 -> 28 ;
29 [label="gini = 0.219\nsamples = 8\nvalue = [1, 7]"] ;
23 -> 29 ;
30 [label="gini = 0.231\nsamples = 15\nvalue = [2, 13]"] ;
22 -> 30 ;
}