digraph Tree {
node [shape=box, fontname="helvetica"] ;
edge [fontname="helvetica"] ;
0 [label="x[56] <= 0.987\nentropy = 1.25\nsamples = 144\nvalue = [26, 96, 22]"] ;
1 [label="x[54] <= 0.894\nentropy = 1.3\nsamples = 68\nvalue = [18, 42, 8]"] ;
0 -> 1 [labeldistance=2.5, labelangle=45, headlabel="True"] ;
2 [label="x[0] <= 0.77\nentropy = 1.355\nsamples = 58\nvalue = [18, 33, 7]"] ;
1 -> 2 ;
3 [label="entropy = 0.544\nsamples = 8\nvalue = [7, 1, 0]"] ;
2 -> 3 ;
4 [label="x[23] <= 0.605\nentropy = 1.29\nsamples = 50\nvalue = [11, 32, 7]"] ;
2 -> 4 ;
5 [label="x[39] <= 0.283\nentropy = 1.143\nsamples = 42\nvalue = [5, 30, 7]"] ;
4 -> 5 ;
6 [label="x[47] <= 0.459\nentropy = 1.264\nsamples = 23\nvalue = [5, 15, 3]"] ;
5 -> 6 ;
7 [label="entropy = 0.684\nsamples = 11\nvalue = [2, 9, 0]"] ;
6 -> 7 ;
8 [label="x[28] <= 0.62\nentropy = 1.5\nsamples = 12\nvalue = [3, 6, 3]"] ;
6 -> 8 ;
9 [label="entropy = 1.459\nsamples = 6\nvalue = [2, 1, 3]"] ;
8 -> 9 ;
10 [label="entropy = 0.65\nsamples = 6\nvalue = [1, 5, 0]"] ;
8 -> 10 ;
11 [label="x[5] <= 0.579\nentropy = 0.742\nsamples = 19\nvalue = [0, 15, 4]"] ;
5 -> 11 ;
12 [label="entropy = 0.0\nsamples = 11\nvalue = [0, 11, 0]"] ;
11 -> 12 ;
13 [label="entropy = 1.0\nsamples = 8\nvalue = [0, 4, 4]"] ;
11 -> 13 ;
14 [label="entropy = 0.811\nsamples = 8\nvalue = [6, 2, 0]"] ;
4 -> 14 ;
15 [label="entropy = 0.469\nsamples = 10\nvalue = [0, 9, 1]"] ;
1 -> 15 ;
16 [label="x[39] <= 0.735\nentropy = 1.142\nsamples = 76\nvalue = [8, 54, 14]"] ;
0 -> 16 [labeldistance=2.5, labelangle=-45, headlabel="False"] ;
17 [label="x[43] <= 0.367\nentropy = 0.761\nsamples = 33\nvalue = [3, 28, 2]"] ;
16 -> 17 ;
18 [label="x[22] <= 0.36\nentropy = 0.402\nsamples = 25\nvalue = [2, 23, 0]"] ;
17 -> 18 ;
19 [label="entropy = 0.0\nsamples = 18\nvalue = [0, 18, 0]"] ;
18 -> 19 ;
20 [label="entropy = 0.863\nsamples = 7\nvalue = [2, 5, 0]"] ;
18 -> 20 ;
21 [label="entropy = 1.299\nsamples = 8\nvalue = [1, 5, 2]"] ;
17 -> 21 ;
22 [label="x[17] <= 0.169\nentropy = 1.314\nsamples = 43\nvalue = [5, 26, 12]"] ;
16 -> 22 ;
23 [label="x[55] <= 0.282\nentropy = 1.23\nsamples = 31\nvalue = [5, 21, 5]"] ;
22 -> 23 ;
24 [label="x[60] <= 0.141\nentropy = 1.353\nsamples = 20\nvalue = [3, 12, 5]"] ;
23 -> 24 ;
25 [label="entropy = 1.435\nsamples = 11\nvalue = [3, 6, 2]"] ;
24 -> 25 ;
26 [label="entropy = 0.918\nsamples = 9\nvalue = [0, 6, 3]"] ;
24 -> 26 ;
27 [label="entropy = 0.684\nsamples = 11\nvalue = [2, 9, 0]"] ;
23 -> 27 ;
28 [label="x[8] <= 0.652\nentropy = 0.98\nsamples = 12\nvalue = [0, 5, 7]"] ;
22 -> 28 ;
29 [label="entropy = 0.918\nsamples = 6\nvalue = [0, 2, 4]"] ;
28 -> 29 ;
30 [label="entropy = 1.0\nsamples = 6\nvalue = [0, 3, 3]"] ;
28 -> 30 ;
}