digraph Tree {
node [shape=box, fontname="helvetica"] ;
edge [fontname="helvetica"] ;
0 [label="x[11] <= 0.146\ngini = 0.536\nsamples = 144\nvalue = [53, 82, 9]"] ;
1 [label="x[29] <= 0.238\ngini = 0.494\nsamples = 109\nvalue = [35, 69, 5]"] ;
0 -> 1 [labeldistance=2.5, labelangle=45, headlabel="True"] ;
2 [label="x[59] <= 0.41\ngini = 0.521\nsamples = 35\nvalue = [19, 15, 1]"] ;
1 -> 2 ;
3 [label="gini = 0.534\nsamples = 25\nvalue = [11, 13, 1]"] ;
2 -> 3 ;
4 [label="gini = 0.32\nsamples = 10\nvalue = [8, 2, 0]"] ;
2 -> 4 ;
5 [label="x[53] <= 0.103\ngini = 0.418\nsamples = 74\nvalue = [16, 54, 4]"] ;
1 -> 5 ;
6 [label="x[43] <= 0.957\ngini = 0.399\nsamples = 40\nvalue = [11, 29, 0]"] ;
5 -> 6 ;
7 [label="x[39] <= 0.941\ngini = 0.437\nsamples = 31\nvalue = [10, 21, 0]"] ;
6 -> 7 ;
8 [label="gini = 0.337\nsamples = 14\nvalue = [3, 11, 0]"] ;
7 -> 8 ;
9 [label="x[18] <= 0.937\ngini = 0.484\nsamples = 17\nvalue = [7, 10, 0]"] ;
7 -> 9 ;
10 [label="gini = 0.5\nsamples = 8\nvalue = [4, 4, 0]"] ;
9 -> 10 ;
11 [label="gini = 0.444\nsamples = 9\nvalue = [3, 6, 0]"] ;
9 -> 11 ;
12 [label="gini = 0.198\nsamples = 9\nvalue = [1, 8, 0]"] ;
6 -> 12 ;
13 [label="x[42] <= 0.259\ngini = 0.424\nsamples = 34\nvalue = [5, 25, 4]"] ;
5 -> 13 ;
14 [label="gini = 0.611\nsamples = 12\nvalue = [4, 6, 2]"] ;
13 -> 14 ;
15 [label="x[17] <= 0.239\ngini = 0.244\nsamples = 22\nvalue = [1, 19, 2]"] ;
13 -> 15 ;
16 [label="gini = 0.133\nsamples = 14\nvalue = [0, 13, 1]"] ;
15 -> 16 ;
17 [label="gini = 0.406\nsamples = 8\nvalue = [1, 6, 1]"] ;
15 -> 17 ;
18 [label="x[51] <= 0.368\ngini = 0.584\nsamples = 35\nvalue = [18, 13, 4]"] ;
0 -> 18 [labeldistance=2.5, labelangle=-45, headlabel="False"] ;
19 [label="x[24] <= 0.044\ngini = 0.615\nsamples = 27\nvalue = [11, 12, 4]"] ;
18 -> 19 ;
20 [label="gini = 0.598\nsamples = 19\nvalue = [6, 10, 3]"] ;
19 -> 20 ;
21 [label="gini = 0.531\nsamples = 8\nvalue = [5, 2, 1]"] ;
19 -> 21 ;
22 [label="gini = 0.219\nsamples = 8\nvalue = [7, 1, 0]"] ;
18 -> 22 ;
}