digraph Tree {
node [shape=box, fontname="helvetica"] ;
edge [fontname="helvetica"] ;
0 [label="x[28] <= 0.5\ngini = 0.401\nsamples = 144\nvalue = [104, 40]"] ;
1 [label="x[31] <= 0.5\ngini = 0.228\nsamples = 84\nvalue = [73, 11]"] ;
0 -> 1 [labeldistance=2.5, labelangle=45, headlabel="True"] ;
2 [label="x[60] <= 0.5\ngini = 0.188\nsamples = 76\nvalue = [68, 8]"] ;
1 -> 2 ;
3 [label="x[39] <= 0.5\ngini = 0.284\nsamples = 35\nvalue = [29, 6]"] ;
2 -> 3 ;
4 [label="gini = 0.408\nsamples = 14\nvalue = [10, 4]"] ;
3 -> 4 ;
5 [label="x[24] <= 0.5\ngini = 0.172\nsamples = 21\nvalue = [19, 2]"] ;
3 -> 5 ;
6 [label="gini = 0.0\nsamples = 11\nvalue = [11, 0]"] ;
5 -> 6 ;
7 [label="gini = 0.32\nsamples = 10\nvalue = [8, 2]"] ;
5 -> 7 ;
8 [label="x[44] <= 0.5\ngini = 0.093\nsamples = 41\nvalue = [39, 2]"] ;
2 -> 8 ;
9 [label="gini = 0.0\nsamples = 26\nvalue = [26, 0]"] ;
8 -> 9 ;
10 [label="gini = 0.231\nsamples = 15\nvalue = [13, 2]"] ;
8 -> 10 ;
11 [label="gini = 0.469\nsamples = 8\nvalue = [5, 3]"] ;
1 -> 11 ;
12 [label="x[18] <= 0.5\ngini = 0.499\nsamples = 60\nvalue = [31, 29]"] ;
0 -> 12 [labeldistance=2.5, labelangle=-45, headlabel="False"] ;
13 [label="x[39] <= 0.5\ngini = 0.434\nsamples = 22\nvalue = [7, 15]"] ;
12 -> 13 ;
14 [label="gini = 0.346\nsamples = 9\nvalue = [2, 7]"] ;
13 -> 14 ;
15 [label="gini = 0.473\nsamples = 13\nvalue = [5, 8]"] ;
13 -> 15 ;
16 [label="x[32] <= 2.5\ngini = 0.465\nsamples = 38\nvalue = [24, 14]"] ;
12 -> 16 ;
17 [label="x[11] <= 0.5\ngini = 0.486\nsamples = 24\nvalue = [14, 10]"] ;
16 -> 17 ;
18 [label="x[29] <= 0.5\ngini = 0.5\nsamples = 16\nvalue = [8, 8]"] ;
17 -> 18 ;
19 [label="gini = 0.5\nsamples = 8\nvalue = [4, 4]"] ;
18 -> 19 ;
20 [label="gini = 0.5\nsamples = 8\nvalue = [4, 4]"] ;
18 -> 20 ;
21 [label="gini = 0.375\nsamples = 8\nvalue = [6, 2]"] ;
17 -> 21 ;
22 [label="gini = 0.408\nsamples = 14\nvalue = [10, 4]"] ;
16 -> 22 ;
}